Language model created by QuickLM on Thu Jun 18 00:40:13 EDT 2020
Copyright (c) 1996-2010 Carnegie Mellon University and Alexander I. Rudnicky

The model is in standard ARPA format, designed by Doug Paul while he was at MITRE.

The code that was used to produce this language model is available in Open Source.
Please visit http://www.speech.cs.cmu.edu/tools/ for more information

The (fixed) discount mass is 0.5. The backoffs are computed using the ratio method.
This model based on a corpus of 11 sentences and 11 words

\data\
ngram 1=11
ngram 2=20
ngram 3=22

\1-grams:
-0.9128 </s> -0.3010
-0.9128 <s> -0.2444
-1.6532 CHROME -0.2444
-1.2553 CLOSE -0.2499
-1.9542 EXIT -0.2444
-1.6532 GAME -0.2444
-1.6532 GOOGLE -0.2913
-1.6532 IMAGE -0.2444
-1.6532 NEWS -0.2444
-1.2553 OPEN -0.2499
-1.6532 VIDEO -0.2444

\2-grams:
-0.6435 <s> CLOSE 0.0000
-1.3424 <s> EXIT 0.0000
-0.6435 <s> OPEN 0.0000
-0.3010 CHROME </s> -0.3010
-1.0000 CLOSE GAME 0.0000
-1.0000 CLOSE GOOGLE 0.0000
-1.0000 CLOSE IMAGE 0.0000
-1.0000 CLOSE NEWS 0.0000
-1.0000 CLOSE VIDEO 0.0000
-0.3010 EXIT </s> -0.3010
-0.3010 GAME </s> -0.3010
-0.3010 GOOGLE CHROME 0.0000
-0.3010 IMAGE </s> -0.3010
-0.3010 NEWS </s> -0.3010
-1.0000 OPEN GAME 0.0000
-1.0000 OPEN GOOGLE 0.0000
-1.0000 OPEN IMAGE 0.0000
-1.0000 OPEN NEWS 0.0000
-1.0000 OPEN VIDEO 0.0000
-0.3010 VIDEO </s> -0.3010

\3-grams:
-1.0000 <s> CLOSE GAME
-1.0000 <s> CLOSE GOOGLE
-1.0000 <s> CLOSE IMAGE
-1.0000 <s> CLOSE NEWS
-1.0000 <s> CLOSE VIDEO
-0.3010 <s> EXIT </s>
-1.0000 <s> OPEN GAME
-1.0000 <s> OPEN GOOGLE
-1.0000 <s> OPEN IMAGE
-1.0000 <s> OPEN NEWS
-1.0000 <s> OPEN VIDEO
-0.3010 CLOSE GAME </s>
-0.3010 CLOSE GOOGLE CHROME
-0.3010 CLOSE IMAGE </s>
-0.3010 CLOSE NEWS </s>
-0.3010 CLOSE VIDEO </s>
-0.3010 GOOGLE CHROME </s>
-0.3010 OPEN GAME </s>
-0.3010 OPEN GOOGLE CHROME
-0.3010 OPEN IMAGE </s>
-0.3010 OPEN NEWS </s>
-0.3010 OPEN VIDEO </s>

\end\
